/**
  ******************************************************************************
  * @file    weights/conv2d.cc
  * @author  Pierre-Emmanuel Novac <penovac@unice.fr>, LEAT, CNRS, Université Côte d'Azur, France
  * @version V2.0
  * @date    24 march 2020
  * @brief   Template generating plain C code for the implementation of Convolutional Neural Networks on MCU
  */

#include <stdint.h>

#define INPUT_CHANNELS     16
#define CONV_FILTERS       32
#define CONV_KERNEL_SIZE_Y 3
#define CONV_KERNEL_SIZE_X 3
#define CONV_GROUPS        1


const int16_t conv2d_1_bias[CONV_FILTERS] = {42, 15, 8, 22, 32, 44, -17, 21, 30, -44, -6, -37, -7, 33, -2, -13, 12, 74, -25, 41, -12, 41, 36, 22, -35, 34, -20, 4, 1, 69, 26, 12}
;


const int16_t conv2d_1_kernel[CONV_FILTERS][CONV_KERNEL_SIZE_Y][CONV_KERNEL_SIZE_X][INPUT_CHANNELS / CONV_GROUPS] = {{{{-24, 36, -1, -77, -36, 30, -51, -16, -31, 122, -58, -60, -113, 10, 34, 31}
, {-46, -93, -59, 47, -47, 41, -4, 17, -43, -107, -10, 9, 51, -41, 50, -49}
, {32, 63, 78, 69, 69, -82, 78, 29, -96, 37, 79, 56, 91, -93, -42, -11}
}
, {{32, 14, 30, -108, 15, -32, -68, -24, -27, 143, 23, -33, -177, -95, 11, 105}
, {-123, -167, -161, -9, -101, -67, -46, -37, 8, -152, -99, 32, -33, -174, -50, -111}
, {-8, 43, 38, 89, 79, -147, 70, 47, -180, -210, 66, 106, 98, -125, -103, 39}
}
, {{-45, 47, -44, -45, -4, 145, -108, 58, 71, 86, 6, -80, -90, 51, 31, 19}
, {-76, -105, -95, -16, -102, -27, -62, -131, 16, -94, -55, -98, -69, -193, -50, -120}
, {-51, 20, 26, 100, 5, -228, 79, 21, -142, -86, 57, 110, 65, -81, -60, 7}
}
}
, {{{-198, -264, -172, -33, -236, 45, -92, -188, -47, -21, -134, -14, -39, -39, 116, -263}
, {-160, -173, -52, 8, 24, 113, 5, 58, 7, -19, -85, 119, -167, 65, 125, -45}
, {-112, -210, -133, -98, -33, 131, 10, -13, 31, -151, -115, 118, -69, 269, 134, 7}
}
, {{-12, 23, -55, -66, -100, -29, -51, -237, 51, 65, -77, -240, -42, -58, 47, -170}
, {-21, 20, -53, -65, -123, 81, -81, -280, 25, 83, -61, -308, -27, -241, 119, -228}
, {-48, 41, -37, -42, -88, 27, -86, -131, 52, 185, -45, -237, -38, -259, 146, -184}
}
, {{63, -47, 45, 31, 45, -113, 32, 44, 55, -17, 18, 16, 82, -10, -128, 19}
, {65, 23, 88, 68, 30, 25, -8, 5, -70, 44, 46, 51, 31, 96, -3, 61}
, {108, 69, 58, 29, 108, 6, 80, 58, -66, 124, 74, 30, 77, 0, 88, 60}
}
}
, {{{5, -69, -43, 29, -18, -47, -16, -45, -8, -28, -4, 55, -19, -17, 32, -29}
, {53, 16, 3, 56, -5, 27, 13, 26, -101, -11, 57, 65, 28, -19, 78, 21}
, {52, 73, 82, 74, 93, 124, 86, 26, -82, 30, 27, 141, 12, 42, 87, 71}
}
, {{-87, -117, -156, -85, -110, -33, -29, -49, -76, 80, -65, -21, -110, -1, 13, -108}
, {-170, -216, -209, -100, -10, 33, -120, 7, -4, -153, -90, -26, -185, 75, 38, -61}
, {-36, -42, -28, 68, -9, 102, 5, -46, 14, 8, 53, 111, 6, 2, 85, -138}
}
, {{-114, -42, -87, 5, -129, -52, -82, -141, 80, -8, -63, -96, 33, 7, 86, -120}
, {-2, 50, 30, 29, -49, -203, 40, -62, 173, 60, 12, -186, 94, -36, -113, -100}
, {55, 85, 24, 40, -10, -123, 55, -6, -13, -35, 25, 15, 60, 14, -158, 5}
}
}
, {{{15, -43, -6, 28, 32, 1, -22, 45, 58, -89, 42, 40, 4, -29, 50, -40}
, {26, 11, 53, 19, 67, -39, 16, 30, -65, 86, 34, -22, -39, -10, -32, 29}
, {36, -2, -68, -98, -54, -94, -84, -55, -35, 90, -36, -69, -133, -60, -105, -46}
}
, {{-4, -40, 22, 23, 1, -13, 33, -13, 83, -91, -47, 34, -16, -67, 36, -35}
, {60, 63, 85, 44, 54, -88, 93, 47, -181, -25, 40, 8, 26, -51, -15, 50}
, {85, 41, 14, 20, 63, -12, 2, 11, -176, 36, 25, -45, -66, 147, -40, 28}
}
, {{15, -21, -64, 4, -21, -12, -32, -28, 76, 2, -11, -12, -7, 97, -42, -21}
, {15, -22, -11, 59, 31, -50, 0, 88, -98, -156, -6, 96, 54, 19, -165, -16}
, {-12, -34, 33, 1, 10, 13, -14, 21, -70, -14, 13, 23, -80, -104, -28, 36}
}
}
, {{{3, 27, 28, -12, 10, 47, -2, 64, -19, 69, -18, -4, -12, 53, -61, 18}
, {6, 29, -1, -5, -71, -17, -16, -70, -36, 80, -39, -30, 70, 97, -26, 20}
, {21, -19, -14, -45, -58, -83, 13, -56, -14, 122, -54, -79, -25, 91, 8, -24}
}
, {{17, 10, 23, -12, -3, 1, 10, -19, -57, 65, 34, 17, 20, -36, -29, 11}
, {-11, 4, 11, 4, 14, -66, -37, -52, -87, 106, -10, -57, -7, 73, -131, -26}
, {34, 37, 14, -40, 18, -27, -10, 6, 19, 74, 10, -37, -25, 70, -8, -19}
}
, {{48, 25, 9, 34, 62, -45, 27, 6, 35, 36, 11, 8, 31, 123, -25, 12}
, {73, 42, 80, 72, 62, -79, 8, -31, -104, 76, 35, -1, 31, 37, -119, 41}
, {57, 48, -4, -16, 57, -5, 58, 29, -68, 32, 10, 1, -41, 103, -24, 50}
}
}
, {{{62, 59, 56, 54, 97, 120, 21, 94, 1, 6, 87, 112, 13, 97, 49, 129}
, {-16, 5, -27, 27, 76, 51, -55, 29, -13, -94, 46, 0, -43, 43, 31, 76}
, {-81, -108, -134, -84, 29, 56, -62, 29, 50, -146, -78, -30, -7, 49, 30, 45}
}
, {{43, 63, 44, -40, 21, 64, 16, 60, 45, -31, 43, 22, 44, 169, 53, 70}
, {-127, -125, -61, -169, 3, 64, -101, -31, 25, -139, -77, -20, -125, 6, 93, -10}
, {-142, -137, -168, -99, -125, -59, -92, -72, 20, -80, -101, -54, -31, -111, -4, -80}
}
, {{-97, -109, -35, -79, 26, 110, 2, 20, 85, -196, -17, 53, -118, 112, 97, 25}
, {-114, -85, -126, -176, -102, 33, -100, -155, 107, -114, -111, -141, -114, -60, 44, -97}
, {-105, -118, -100, -62, -118, -21, -32, -131, 23, -120, -49, -9, -13, -144, 84, -157}
}
}
, {{{-98, -19, -28, -22, -29, 35, -62, -2, 31, -121, -46, -8, -73, -69, 43, -37}
, {-33, 37, -13, 34, 55, -56, 42, -22, 8, -142, 49, -1, -19, -138, -7, -65}
, {41, -14, -12, 6, 33, -66, 34, 75, -55, -35, 35, 5, -3, -98, -177, 64}
}
, {{-97, 27, -6, 4, -49, -10, -3, -66, 174, 38, 1, -93, -2, -85, -4, -113}
, {35, 29, 35, 58, 60, -152, 71, 24, -53, -93, 46, -38, 62, -43, -128, 54}
, {48, 32, 13, 18, 45, 47, 55, 28, -114, -84, 39, 71, -60, 83, -22, 57}
}
, {{61, 15, 77, 26, -8, 12, 60, 31, 12, -20, 22, -60, 44, 53, -76, -15}
, {-16, -30, -20, -1, -15, 1, -1, 77, 13, -162, 15, 23, 46, 1, -96, 64}
, {-2, -78, -16, -38, 0, -16, -5, -48, -9, -64, -20, -23, -91, -10, 46, 0}
}
}
, {{{47, 22, 56, 50, -7, 25, -26, 3, 31, -72, -17, 27, -16, -44, 63, 34}
, {27, 36, 15, -18, 50, -66, 18, 71, -75, 13, 43, 6, -28, 1, -68, 40}
, {41, 4, 4, -24, -31, -82, 5, 43, 0, -47, 27, -65, -70, -3, -1, 5}
}
, {{-76, -20, -78, 7, 29, -32, -8, -9, 120, -46, 35, 14, -48, -7, -8, -10}
, {12, 66, 63, 19, 47, -71, 62, 5, -199, 33, 82, 59, -17, -61, -3, 6}
, {-6, 46, 102, 17, -25, -58, 15, 50, -199, 6, 48, 39, 22, 34, -28, 18}
}
, {{31, 10, -24, 35, -44, 6, -44, 19, 45, 56, 8, -20, 27, 7, 6, -68}
, {-35, 9, 6, -1, 24, -21, 28, 35, -194, -109, 29, 71, 41, 32, -21, 35}
, {-8, -35, 50, -6, 1, -50, 17, 4, -121, -54, -28, 41, -37, 64, -29, -13}
}
}
, {{{38, -21, -1, -39, -23, 36, 29, 30, 43, 10, 5, 80, 7, 93, -6, 22}
, {44, 74, 6, 101, 30, 62, 72, 62, -33, 106, 43, 83, 49, 64, 61, 53}
, {64, 99, 51, 117, 48, 147, 74, 52, -80, 44, 72, 127, 85, 115, 156, 55}
}
, {{-81, -125, -151, -132, -129, 47, -99, -33, -25, -65, -70, 27, -98, 63, 112, -46}
, {-133, -169, -112, -43, -29, 100, -66, -23, 46, -69, -111, 60, -47, 150, 132, -67}
, {-81, -61, -8, -6, 33, 119, -21, 67, 76, -167, -13, 75, -39, 191, 163, -9}
}
, {{19, 82, 51, -78, -22, -33, -49, -89, -75, 108, -6, -137, -67, -28, 63, 5}
, {-1, 49, -52, -71, -102, 8, -89, -226, 40, 100, -36, -219, -12, -167, 55, -164}
, {8, -38, -52, -119, -105, 37, -69, -115, 78, 64, -29, -178, -47, -124, 75, -81}
}
}
, {{{27, 35, -20, 8, -42, -104, -46, -60, -20, 28, -32, -81, -16, -116, -128, -95}
, {-81, -33, 9, -77, -33, -59, -57, -56, 56, 94, -23, -141, -89, -140, -25, -34}
, {-31, 25, 3, -20, -36, -65, -86, -125, -37, 174, -24, -245, -7, -37, -130, -128}
}
, {{13, 50, 22, -18, 4, -4, 29, -10, -55, 25, 20, 6, 19, 114, -3, 52}
, {54, 8, 46, 31, 51, 131, 28, 60, -82, 119, 53, 109, 22, 225, 118, 4}
, {90, 45, 127, 98, 16, 75, 42, 106, -135, 15, 93, 100, 62, 229, 141, 102}
}
, {{-41, -13, -81, 31, -15, 23, -13, -21, 20, -23, -74, 25, -85, 107, -31, -9}
, {-91, -101, -48, -91, -51, 85, -33, 16, 3, -195, -59, -7, -155, 18, 76, -12}
, {-85, -164, -109, -72, -28, 11, -102, -104, 109, 10, -94, -63, -95, -94, 23, -96}
}
}
, {{{-29, -2, 44, -4, 34, 19, 3, -2, -40, 14, 59, 3, 15, 16, -78, -14}
, {-18, 21, -8, -69, -62, 8, -45, -49, 42, 73, -67, -71, -71, 120, -61, 4}
, {-92, 2, -40, 6, -69, 114, -41, -28, -26, 25, -8, 14, -40, 184, 8, -27}
}
, {{16, -14, -27, 53, 4, 45, -31, 30, -68, 92, -1, 19, -19, 65, 96, -55}
, {32, 15, 85, 10, 22, 61, -3, 72, -239, 41, 69, 43, -42, 175, 20, 38}
, {10, -14, 33, -36, 33, 1, 15, -35, -193, 93, -9, 31, -49, 86, -28, 44}
}
, {{-51, 1, -28, -52, 2, 14, 12, 34, -63, -79, -38, 69, -53, 20, 74, 18}
, {1, 3, 16, 10, 62, 82, 35, 11, -319, -95, 38, 82, -29, 202, 129, 33}
, {-3, 38, 13, -27, -34, 49, 11, -6, -147, 113, 16, 59, -51, 104, 122, -25}
}
}
, {{{-54, -106, -38, -71, -16, -10, -51, -27, -55, 67, -60, -16, -9, 58, 54, 7}
, {-132, -190, -213, -62, -52, 55, -80, -66, 36, -128, -174, 11, -92, 190, 15, -30}
, {-133, -90, -89, -56, -71, 31, -109, -80, 63, -4, -97, -22, -57, -59, 15, -149}
}
, {{-106, -61, -94, -86, -124, 20, -74, -117, 98, -51, -113, -111, -1, -56, -33, -96}
, {35, 56, -8, -24, -60, -135, -20, -67, 76, 105, -10, -157, 37, 69, -174, -137}
, {81, 65, 54, 114, 38, -67, 57, 11, 13, 135, 54, -66, 48, 120, -187, -41}
}
, {{2, 10, 12, 62, -26, -68, 22, -50, -15, -59, -8, -61, 28, 32, -67, 8}
, {78, 78, 69, 43, 75, 23, 89, 93, -57, 10, 122, 60, 86, 116, 1, 54}
, {39, 30, 36, 3, 55, 91, -13, 47, 0, -44, 49, 50, 81, 142, 81, 46}
}
}
, {{{70, 46, 30, -9, -22, -24, 14, -14, -86, 36, -12, -58, -58, -13, -110, 56}
, {-6, -37, -52, -58, -79, 1, -88, -39, -40, 9, -38, -79, -39, 44, 46, -37}
, {-124, -139, -95, -5, -59, 39, -9, -38, -48, -187, -98, 120, -25, 103, 68, -27}
}
, {{19, 52, 66, 61, -7, 14, 32, 32, -253, 25, 58, 72, -37, 174, 23, 69}
, {66, 28, 70, 26, -3, -168, 32, -18, -175, 118, 29, -2, -88, 23, -66, 25}
, {-72, -7, -37, -91, -40, -86, -132, -114, -135, 52, -92, -251, -101, -131, -34, -56}
}
, {{-39, -18, -3, 46, -23, 99, -26, 54, -149, 51, 52, 44, -13, 121, 72, -2}
, {42, 13, 48, 79, 82, 76, 65, 54, -431, 96, 64, 188, 17, 125, 102, 2}
, {25, 25, 94, 41, 51, 1, 34, 67, -281, 99, 98, 66, -93, 41, 55, 75}
}
}
, {{{-21, -35, -14, -9, -56, -26, -11, -1, -18, 13, -80, 10, -76, -71, 46, -85}
, {-18, 30, -6, 63, -13, -110, 6, 8, 111, -112, 48, 48, 51, 17, -70, 12}
, {51, 33, 46, 48, 37, -163, 19, 51, -24, 22, 28, -3, 0, -25, -264, 92}
}
, {{-119, -23, -112, -104, -122, 7, -39, -54, 72, -70, -62, -10, -66, -146, -25, -67}
, {0, -8, -4, 84, -27, -183, 22, -2, 96, -97, 23, 30, 74, -301, -155, -60}
, {59, 7, 90, -36, 67, -107, 30, 88, -102, -76, 33, 24, 32, -77, -256, 97}
}
, {{-103, -67, -49, 0, -66, 20, -40, -119, 124, -32, 7, -29, -29, -155, 14, -156}
, {28, -2, 52, 49, -26, -213, 58, 6, -8, -116, 43, 44, 18, -46, -199, -37}
, {-39, -14, -17, -24, 39, 8, -22, 48, -236, -116, 29, 42, -28, 6, -147, 93}
}
}
, {{{-96, -75, -25, 2, -2, -9, 26, -18, 13, -42, -5, -8, -29, -68, 48, -8}
, {-10, 17, 61, -10, 6, 2, 54, 43, -7, 15, 45, 50, -18, -18, 2, 53}
, {31, -4, 57, 26, 26, 39, -18, -11, -69, 44, 11, 23, -16, 25, 84, 12}
}
, {{3, -24, -15, 36, -66, -83, -19, -70, 50, -29, 18, 26, 37, -62, -57, -138}
, {31, 71, 94, 20, 25, -52, 41, 57, -89, -25, 90, 10, 44, 33, -141, 83}
, {-27, -63, -35, -130, -11, -11, -96, 18, 18, -252, -6, -88, -177, -1, -58, 75}
}
, {{70, -1, 36, 39, -47, -1, 21, -43, 52, -48, -39, 50, 30, -50, -64, -50}
, {54, -25, 9, -7, 45, 90, 7, 16, 118, -295, 8, 31, 122, 163, -113, 37}
, {-190, -209, -126, -262, -48, 11, -272, -13, 46, -373, -169, -202, -298, -208, -199, 12}
}
}
, {{{-4, -12, -12, 13, 54, -66, -3, -9, 8, -22, -29, 5, -62, -142, -67, 30}
, {35, 28, 2, 17, -41, -200, -10, -25, -108, 52, 19, -109, -55, -123, -120, -59}
, {-61, -19, -8, -52, -36, -127, -64, -89, -30, 127, -53, -118, -37, 64, 32, -35}
}
, {{12, -28, 12, 25, -2, 101, 47, 54, -93, -47, 37, 103, 12, 136, 126, 22}
, {7, 2, 65, 70, 38, 114, 66, 105, -163, 116, 3, 139, 23, 221, 229, 62}
, {54, 55, 3, 61, 17, 54, 28, 44, -172, 117, 36, 90, 19, 170, 127, 21}
}
, {{-70, -38, -83, -116, -18, -41, -37, -81, 35, -71, -99, 15, -153, -40, 26, -23}
, {-110, -84, -151, -95, -31, 36, -9, -17, -84, -21, -74, 33, -44, 16, 123, -46}
, {-34, -54, -79, -1, -35, 88, 32, 31, -35, -11, -52, 47, -49, 106, 125, 8}
}
}
, {{{17, 5, -30, 12, -34, -21, -11, -8, 42, 6, 17, 13, -16, -77, 71, -11}
, {24, 57, 11, -19, -4, -64, 4, -17, 18, 42, 8, -14, 30, -63, 2, 11}
, {64, 56, -36, 15, 62, -134, 39, -64, -70, 63, -6, -138, 23, -71, -26, -36}
}
, {{12, -53, -3, 36, 10, 21, -10, 47, 1, -46, -22, -21, -61, 74, 25, 36}
, {42, 16, 42, 48, 27, 37, 50, 35, -163, 60, 30, 60, 63, 62, 111, -36}
, {9, 70, 69, 62, 69, 11, 63, 3, -219, 61, 40, 74, 41, 157, 22, 39}
}
, {{-59, -100, -52, -46, -64, 46, -24, -53, 31, -137, -68, 44, -57, 112, 19, -2}
, {-81, -179, -135, -88, -68, 52, -79, -50, -63, -184, -113, -24, -75, -21, 83, -11}
, {-12, -51, -3, 42, 26, 47, 8, -28, -84, -18, 5, 96, 8, 183, 145, -11}
}
}
, {{{20, 41, 80, -8, 71, 15, 21, 71, -16, 25, 26, 100, -74, -194, -77, 68}
, {-31, -15, -69, -47, -5, -91, -68, -65, -1, 26, -63, -96, -164, -100, -175, 50}
, {-118, -104, -79, -65, -70, -59, -141, -112, 32, -15, -149, -96, -91, -155, 33, -86}
}
, {{16, 49, 77, 78, 65, -15, 70, 23, -23, 19, 30, 98, 42, -86, -240, 94}
, {31, 33, 8, 28, 61, -155, -5, 62, -24, 7, 35, -116, -48, -115, -167, 75}
, {-131, -196, -195, -70, -86, -105, -162, -57, 123, -94, -147, -157, 23, -126, -12, -20}
}
, {{50, 28, 49, 34, 50, -126, 33, 15, 0, -22, 45, 36, 98, -95, -153, 74}
, {4, 41, 40, 17, 83, -65, -14, 82, 5, -63, 53, -88, -22, -143, -109, 100}
, {-114, -104, -166, -9, -113, -69, -84, -128, 76, -59, -95, -130, 38, -168, -81, -109}
}
}
, {{{-69, 7, -8, -63, 29, -42, -15, -55, 33, -31, 23, -37, -48, -55, 0, 10}
, {73, -2, 40, 10, 11, -111, -11, 35, -50, 7, -4, -56, -5, 61, -86, -14}
, {40, 54, 77, 30, -1, -10, 29, -8, -24, 71, 73, 11, 86, 199, 20, -70}
}
, {{64, 25, 5, 39, 63, 12, -27, 68, -42, 5, -7, 31, 30, 67, 21, 29}
, {64, 77, 20, 40, 18, 89, -2, 56, -99, -112, 31, 58, -25, 284, 54, 92}
, {7, -77, -8, -32, 14, 123, 7, 7, -103, -30, -6, 64, -131, 172, 125, 37}
}
, {{2, -109, -67, -70, -34, -42, 11, 28, 27, -217, 3, 70, -70, 88, -34, 17}
, {-86, -60, -27, -41, -2, 53, -67, -32, -120, 56, 6, 61, -51, 52, 119, -5}
, {-14, -20, 2, -20, -2, 16, -40, 5, 1, 43, -33, 39, -74, 88, 128, -8}
}
}
, {{{7, -45, 44, 5, 30, 19, 31, 29, -57, 54, -11, 7, -34, 26, 44, -11}
, {9, -14, 23, 54, -3, 12, 40, 58, 44, -54, 42, 8, 7, -26, -49, 3}
, {10, 54, 55, -61, 4, -83, -34, -18, -48, -9, -59, -6, -35, -94, -65, 42}
}
, {{6, -47, -29, -87, 33, 54, -80, -34, -4, -20, -68, 10, -81, -126, 24, 104}
, {-46, -18, -61, 16, 5, -13, 37, 28, 16, -46, -10, 90, 51, -131, -33, -59}
, {68, 15, 76, 62, 2, -214, 34, 1, -157, -8, 60, 67, 77, -138, -188, 66}
}
, {{-95, -114, -107, -144, -18, 64, -138, -87, -18, -51, -85, -45, -73, -122, 73, 43}
, {-112, -92, -113, 29, -21, -57, -9, -31, 46, -236, -76, 67, -42, -218, 17, -121}
, {2, 30, 47, 124, 91, -251, 106, 54, -267, -31, 55, 121, 92, -224, -275, -11}
}
}
, {{{28, 31, -22, -37, 47, -19, 5, 39, -64, 140, 0, -3, 5, 33, -108, 25}
, {-44, -52, -75, -65, -32, 64, -94, -52, -33, 119, -73, -49, -129, 7, 50, -77}
, {-100, -130, -115, -15, -97, -91, -61, -71, -85, -45, -67, -77, -26, 3, -85, -16}
}
, {{58, 22, 57, -4, 82, -1, 60, 57, -181, 47, 59, 40, -17, 70, 42, 32}
, {60, 56, 7, 26, -2, -65, 37, -30, -70, 154, 44, -80, 33, 166, -92, 3}
, {85, 61, 52, 45, 2, -125, 21, -27, -89, 117, 4, -68, 72, 80, -89, 26}
}
, {{25, 48, 26, 75, 28, 38, 0, -13, -118, 53, 50, -8, -8, 104, 13, -3}
, {19, 50, 31, 15, 46, 173, 3, 17, -154, 34, 38, 26, 6, 42, 25, -12}
, {18, 23, -19, 75, 15, 48, 4, 46, -40, 22, 7, 43, -44, 117, 55, 42}
}
}
, {{{57, 21, 3, 19, 75, 80, 39, 43, 106, -31, 21, 41, 81, -84, 21, 96}
, {10, -23, 2, 4, 28, 79, 72, 60, 68, -66, -10, 11, 74, -37, 56, 13}
, {92, 2, 38, 3, 45, 73, 79, 30, 44, -163, 14, 75, 33, 134, 54, 63}
}
, {{-68, -81, -90, -7, -15, 118, 7, -18, 123, -83, -58, 79, 13, 25, 113, -16}
, {-22, -121, -17, 48, 57, 12, -1, 53, 33, -63, -9, 57, -69, 194, 28, 67}
, {-161, -235, -203, -250, -66, 84, -192, -18, 207, -30, -182, -105, -267, 65, 39, 42}
}
, {{-81, -96, -151, -167, -63, 89, -165, -96, 16, 212, -194, -12, -173, -46, 240, -139}
, {-179, -82, -177, -113, -219, 46, -190, -178, 61, 90, -142, -129, -149, -183, 89, -145}
, {11, 48, 2, -13, -90, -47, -7, -148, 153, 68, -31, -271, -11, -169, -57, -218}
}
}
, {{{9, 0, 55, -23, 56, -31, 35, -11, 31, -69, -18, -61, 47, -104, -128, 52}
, {11, 81, 12, 26, 19, -184, 28, -9, -37, 2, -17, -49, 91, -29, -144, 36}
, {12, 11, 0, -116, -41, -47, -123, -51, 56, -15, -39, -149, -103, 2, -80, 24}
}
, {{61, 8, -28, 0, 23, -188, -7, 44, -26, -81, 30, -44, 48, -20, -181, -15}
, {-5, 12, 34, 17, 66, -206, 45, 50, -44, -95, 84, -10, 71, -63, -288, 18}
, {-43, 34, -42, -29, -40, -9, -89, 4, -102, 99, 29, -138, -64, 5, -57, 30}
}
, {{46, 14, 12, 16, 38, -2, 29, -16, 62, -20, 7, -77, -26, -124, -103, 47}
, {76, 66, 89, 62, -15, -101, 72, 13, -95, -42, 54, 26, 0, -37, -94, 44}
, {44, 15, 29, -44, 51, 8, -1, 23, -32, 57, -21, -23, -87, 50, -75, 9}
}
}
, {{{63, 35, 88, -9, 35, 61, 31, 17, -62, 72, 31, 63, -46, -82, 1, 52}
, {-155, -185, -113, -138, 14, 19, -68, -47, 47, -112, -92, -7, -138, -28, 11, 15}
, {22, -39, -32, -30, -26, -84, -38, -48, 89, 89, 41, 1, 53, -75, -56, -53}
}
, {{-135, -137, -124, -200, 15, 145, -217, 97, 80, -71, -171, -16, -176, 55, 30, 147}
, {-106, -31, -44, 32, -159, -118, -16, -148, 139, 48, -33, -138, 5, -215, -134, -235}
, {97, 90, 34, 95, 25, -178, 19, -15, -3, 20, 67, -11, 110, -40, -228, 38}
}
, {{-117, -128, -157, -74, -160, 68, -103, -115, 87, -91, -66, -218, 93, -215, -66, -160}
, {98, 34, 35, 15, -28, -139, 30, 33, 67, -60, 40, 49, 49, -23, -42, -40}
, {60, 15, 24, 38, 30, 93, 24, 78, -60, -76, 12, 73, 88, 31, -43, 30}
}
}
, {{{-34, -90, -20, -61, -26, 35, -24, -11, 1, -10, -22, 32, -10, 70, -1, 3}
, {-21, -62, -59, -2, -25, 45, -61, -64, -38, 6, -10, -46, -67, -17, 57, -40}
, {-17, 49, 5, 49, -35, -137, -6, -1, -5, 17, -20, -42, 29, -99, -108, -34}
}
, {{-27, 31, 63, 68, -16, -165, -26, -63, 44, 77, 38, -83, 47, 105, -52, -11}
, {43, 73, 70, 30, 14, -139, 38, 19, -37, 63, 46, -99, 39, 177, -138, 14}
, {71, 45, 60, 15, 20, 15, 80, 45, 18, 7, 37, 52, 88, 27, -19, 38}
}
, {{72, 19, 17, 8, -7, 122, 37, 52, -29, 19, 22, 4, 8, 78, 9, 18}
, {-7, -18, -40, 22, 38, 128, -4, 46, 75, -144, -44, 45, 24, 127, -34, 29}
, {-31, -1, 63, 28, -6, 3, 38, -14, -11, -123, -2, -18, 26, -67, -19, -29}
}
}
, {{{-30, -26, -62, 28, -19, -78, 22, -12, 133, -76, -1, 62, 0, -86, -46, -103}
, {31, 23, 87, 57, 57, -204, -25, 72, -7, 26, 75, 16, 83, -23, -233, 53}
, {2, -29, -17, -56, 59, -36, -45, -3, 4, -27, -51, -48, -176, 88, -107, 30}
}
, {{-56, 12, -104, 22, -60, -33, -8, -63, 52, -149, -47, 13, 80, -189, -85, -97}
, {60, 59, 30, 78, 83, -218, 100, 60, -210, -163, 76, 116, 34, 5, -289, 64}
, {-37, -14, 14, -118, 7, -79, -74, -9, -49, 42, -75, -155, -198, -151, -126, 18}
}
, {{-53, -73, -61, 17, -62, -136, -21, -30, 23, -241, -37, 60, -14, -59, -166, -116}
, {0, 67, 80, 21, 37, -143, 68, 18, -318, -145, 35, 31, 34, -52, -54, -9}
, {26, 31, -13, 2, -22, -82, -9, -2, -147, 88, -3, -122, -98, -54, -38, 29}
}
}
, {{{38, 20, 46, 51, 74, -89, 49, 9, -51, -7, -2, 10, 2, 5, -73, 38}
, {31, 21, 68, 81, 16, -19, 2, 40, 5, -70, 24, 71, 29, 12, -26, 1}
, {45, -19, 30, 44, 20, 16, 45, 58, -51, -86, 50, 64, 72, 67, -22, 49}
}
, {{83, 43, 59, 74, 28, 53, 5, 26, 29, -26, 29, -6, 50, 20, 25, 33}
, {13, -15, -25, -29, 54, 27, 29, 48, -42, -95, 66, 63, 24, 94, -23, 37}
, {-28, -28, -82, -15, 52, 75, -34, 74, -28, -177, -9, 83, -32, 104, 4, 46}
}
, {{-103, -140, -74, -44, -38, 111, -44, -16, 11, -212, -29, 20, -136, 111, 93, 3}
, {-177, -199, -82, -129, -80, 84, -126, -49, -7, -108, -100, -22, -228, -53, 146, -28}
, {-66, -100, -45, -100, -136, -57, -80, -88, 104, -61, -124, -42, -84, -201, 77, -160}
}
}
, {{{24, 41, -5, 16, -12, -15, 45, -44, -85, -27, 36, 50, -24, -46, -29, 4}
, {27, 23, 16, 27, 73, -50, 55, 24, -61, -1, -6, 45, -13, 87, 15, 55}
, {-11, -10, 39, 68, 39, -91, 69, 41, -84, -33, 51, 21, 35, 100, -14, 21}
}
, {{-94, -66, -1, -4, -20, 24, -4, -19, -60, -82, -56, 50, -64, 76, 64, -55}
, {55, 40, 6, 58, -25, -34, 44, -5, -87, 96, 34, 67, -2, 128, 94, 43}
, {35, 28, 74, 85, -11, 48, 71, 42, -161, 42, 52, 76, 34, 161, 64, 52}
}
, {{-101, -133, -132, -157, -122, 36, -128, -139, 13, 105, -178, -30, -151, -115, 47, -121}
, {-118, -132, -166, -59, -80, 141, -68, -67, -2, 3, -113, -14, -98, 30, 206, -100}
, {-79, -91, -40, 32, -31, 47, -14, -51, 20, -101, -14, -4, -40, 72, 88, -52}
}
}
, {{{34, 38, -48, -52, -8, -12, 30, 6, 54, 25, 22, -39, -10, -17, 41, -66}
, {78, 39, -2, 24, -32, -114, 48, -6, -41, 39, -2, -67, 56, -99, -217, -48}
, {-38, -77, 48, -27, 56, 60, 19, 44, -38, -81, 11, 37, -31, 12, -4, 66}
}
, {{9, 4, 60, 82, 8, -87, 36, -46, 144, -41, 37, -66, 25, -58, -179, 23}
, {125, 51, 46, 90, 58, -30, 67, 14, 64, -116, 7, -15, 162, 5, -243, 43}
, {-26, -72, -75, -121, -5, 92, -106, 2, 62, -145, -68, -13, -198, 43, -118, 34}
}
, {{55, 64, 20, 24, 64, -70, -12, 23, 55, -151, 2, -31, 74, -45, -231, 51}
, {-18, -25, 6, -64, 46, -22, 52, 11, 11, -170, 14, 3, -29, 88, -136, 42}
, {-24, -28, -72, -41, -75, 3, -102, -79, 41, 46, -18, -167, -55, -153, -65, -15}
}
}
, {{{-17, -21, -82, -117, -107, 26, -150, -175, 70, 145, -102, -107, -90, -182, 8, -77}
, {-90, -57, -81, -38, -126, -34, -131, -185, 29, -35, -127, -65, -93, -117, 143, -131}
, {-106, -56, -97, -41, -11, 8, 0, -9, 71, -225, -78, 10, 21, -24, 57, -55}
}
, {{50, 87, 45, -7, 52, 77, 63, 30, -52, 163, 14, 80, 7, 49, 4, 72}
, {58, 78, 20, -44, -48, -99, -11, -44, 15, 47, -27, -83, -73, -234, 5, -3}
, {-63, -122, -172, -78, -98, 24, -185, -195, 34, -89, -215, -52, -180, -210, 110, -55}
}
, {{53, 79, 35, 54, 84, 20, 15, -5, -60, 77, 45, 34, 51, -68, -13, 40}
, {71, 43, 41, 96, 105, -98, 69, 74, -158, 41, 111, 71, 10, -30, -20, 36}
, {27, -15, 19, -50, 19, -208, -84, -65, -49, 73, -2, -66, -84, -169, -47, 38}
}
}
, {{{-19, -33, -16, 7, -24, 34, -23, 19, 76, -154, -7, -11, 51, 48, -24, 23}
, {28, -61, 30, -4, 36, 23, 0, 33, 51, -173, 30, 65, 106, 66, 17, 31}
, {51, 49, 49, 91, 46, 82, 77, 46, 69, -82, 73, 76, 79, 116, 104, 67}
}
, {{-14, -21, -14, -115, 4, -20, -93, -20, -6, 99, -76, -156, -78, -124, -74, -25}
, {-192, -179, -162, -101, -113, 82, -210, -189, 17, 123, -265, -35, -162, -100, 211, -109}
, {-157, -195, -125, -98, -123, 80, -71, -77, 75, -162, -75, 24, -143, 37, 103, -166}
}
, {{37, 54, 68, 57, 91, -69, 78, 48, -92, 26, 39, 65, -17, 91, -90, 52}
, {50, 107, 73, 4, 36, -263, 62, 0, -135, 196, 54, -59, -17, 252, -247, 15}
, {29, 69, -6, -48, 37, -210, 18, -59, -6, 52, 49, -154, -27, 53, -239, -23}
}
}
, {{{14, 7, 43, 57, -2, -240, 84, -36, 66, 7, 63, 17, 87, -143, -208, -3}
, {24, -24, 30, 45, 42, -41, 11, 113, 7, -129, -2, 42, 28, 18, -146, 45}
, {-98, -73, -36, -44, 4, -3, -93, -12, 85, -103, 8, -27, -85, -88, -90, 44}
}
, {{67, 53, 74, 62, 37, -132, 35, 80, -118, -136, 52, 18, 56, 73, -210, 41}
, {-69, -67, -52, -81, 24, -59, -94, 2, 131, -211, -14, -63, -137, -117, -209, 55}
, {-40, -35, -28, 32, -49, -54, -57, -59, 12, 26, -73, -36, -32, 12, 32, -8}
}
, {{10, -24, 52, -28, 31, -19, -27, 72, 1, -245, 14, 29, -18, -2, -55, 95}
, {-8, -51, -77, -64, -12, 0, -46, 1, -66, -2, -31, -57, -108, -163, 70, -55}
, {29, 34, 14, 51, -3, 38, 6, 21, -45, 114, -13, 56, 77, 56, 117, -62}
}
}
}
;

#undef INPUT_CHANNELS
#undef CONV_FILTERS
#undef CONV_KERNEL_SIZE_X
#undef CONV_KERNEL_SIZE_Y
#undef CONV_GROUPS